{
  "weights": [
    [
      -0.5551032011786199,
      -0.8662232099762509,
      0.45480666245993107,
      -1.1462199836755063,
      0.10591492444021018,
      -0.3216335664667008,
      -1.2732095138527233,
      0.10830371212741184,
      -1.2919987727111715,
      0.016809630370312106,
      -1.1529416851942456,
      -1.20442209258471,
      -0.19756678382125192,
      1.1424498335421143,
      -0.9888883552460661,
      -0.6603050146954176
    ],
    [
      0.4725707524938196,
      1.4835288719393833,
      0.13295237906199275,
      -0.33219605822196185,
      1.6360479772067202,
      -1.7054468730130494,
      1.2285827107336362,
      -0.6201136049138056,
      -1.2616356536402116,
      -1.288436451216355,
      -0.760151151615315,
      1.075818727384177,
      -1.1361061589579444,
      0.32710904811400154,
      0.463880942314625,
      -0.3662580320937248
    ],
    [
      0.23489845218144215,
      -1.5743201344447542,
      -1.5523758474098464,
      -1.0821743498321932,
      0.7781056950123553,
      -0.24166461220446403,
      -0.7357811674101195,
      0.3637690530683387,
      -0.12732779354895563,
      -0.7567992200662931,
      1.1049692924983001,
      0.7093778030379289,
      -1.0296420872582712,
      0.32620044522185115,
      0.09701686078710701,
      1.2750741488715531
    ],
    [
      0.8113714959415562,
      -0.6328927757375035,
      1.561921632186512,
      -1.3094978298866051,
      -0.34608182227453205,
      0.9002494827177121,
      -1.1321019916241568,
      -0.020306847853347593,
      -1.5465682170393056,
      0.5874140665386426,
      0.7429714913544019,
      0.3945131945250188,
      1.3157877944256358,
      -0.6807216202757107,
      0.7570199742155341,
      0.3470585192579262
    ],
    [
      0.20345934169150562,
      -0.11911762313190559,
      1.178119623166404,
      1.4873906623101696,
      -0.14096156836317558,
      0.4911212370369945,
      -1.5857285930134462,
      0.6883015905395693,
      0.46279745557147867,
      1.6069921502841502,
      0.9288970752390439,
      -0.7716608422039108,
      -0.44736178816729016,
      0.36790364805315284,
      -1.6697038260685078,
      -0.023708807800529398
    ],
    [
      -1.0954421039550406,
      -1.1893919055956175,
      -1.4371638108039735,
      1.0828841052822915,
      -1.2915050910493666,
      -0.919990885891967,
      -0.3915392350453688,
      1.3136844519089617,
      -1.4074849783798742,
      -0.022979490266382834,
      0.3015473578714594,
      1.4163914272184221,
      1.1660278964427255,
      1.186978844821276,
      -0.7277231825708241,
      -0.3895749532601233
    ],
    [
      -0.522604130384807,
      1.1944351426841244,
      1.6311276503918815,
      -1.1737268349959236,
      -1.0030685148338536,
      -0.9169502481871253,
      -1.025090717349353,
      -0.08375042043239683,
      0.24617588266413437,
      -0.8566909094627492,
      -1.7660920373593996,
      -0.24940176651196921,
      -0.31998194204516767,
      0.33541817925487244,
      1.5804581376064588,
      0.7197356348069599
    ],
    [
      0.04467210648600604,
      0.5268158287877924,
      0.46981515717486433,
      -1.5078000476456843,
      1.4917986008282649,
      0.9880463255334436,
      1.3688822156458176,
      1.1206751710156384,
      -0.2931221931010562,
      -0.3942086476285092,
      -1.4119410441196656,
      0.5377875663400864,
      -1.4727582066502896,
      -1.5164417351049293,
      -0.9424077945914034,
      -1.0868939485606544
    ],
    [
      -0.3966754988516663,
      -1.4409482459933447,
      -1.4216357338001544,
      -0.8630122103221047,
      -1.4353264873599783,
      -0.22902475415283505,
      -1.6332785933074365,
      1.000978075671591,
      -0.0517549647565423,
      -0.8291636256602783,
      -0.6665224827167696,
      -0.5253091835716712,
      -0.24262651547418335,
      -1.2051418638053208,
      0.9767926145573875,
      1.1917795436860805
    ],
    [
      0.03648532107592371,
      -0.27330143192680956,
      -1.4426175170132807,
      -1.4593707087636996,
      -0.5999266905251948,
      -0.7810956654632459,
      1.1474667861257803,
      -1.0715614337941843,
      -1.6102034923838071,
      1.6039736419894024,
      0.2197965646377756,
      -1.1987150511824762,
      0.2977562101262105,
      -1.5191867844894422,
      0.04664853822567342,
      1.530022001917439
    ]
  ],
  "biases": [
    -0.19868223818387284,
    0.6107658695400122,
    -0.7354930955658554,
    -0.33240841036232416,
    -0.5834092043398625,
    0.3046863166440123,
    0.02556837391199852,
    0.5787647352217777,
    -0.8479662773183644,
    -0.837483784013776
  ],
  "config": {
    "epochs": 8,
    "learning_rate": 0.03,
    "train_samples": 120,
    "val_samples": 48,
    "test_samples": 48,
    "seed": 7,
    "checkpoint_dir": "models/checkpoints",
    "checkpoint_name": "training_cpu_checkpoint.json",
    "device": "cpu"
  },
  "history": [
    {
      "epoch": 1,
      "train_loss": 0.9229,
      "val_mae": 0.2818,
      "val_rmse": 0.3423,
      "val_spearman": 0.2236
    },
    {
      "epoch": 2,
      "train_loss": 0.2944,
      "val_mae": 0.3172,
      "val_rmse": 0.3713,
      "val_spearman": 0.1772
    },
    {
      "epoch": 3,
      "train_loss": 0.1391,
      "val_mae": 0.337,
      "val_rmse": 0.3909,
      "val_spearman": 0.1531
    },
    {
      "epoch": 4,
      "train_loss": 0.085,
      "val_mae": 0.3471,
      "val_rmse": 0.4027,
      "val_spearman": 0.1546
    },
    {
      "epoch": 5,
      "train_loss": 0.0628,
      "val_mae": 0.3528,
      "val_rmse": 0.4098,
      "val_spearman": 0.1552
    },
    {
      "epoch": 6,
      "train_loss": 0.0524,
      "val_mae": 0.3561,
      "val_rmse": 0.4143,
      "val_spearman": 0.1562
    },
    {
      "epoch": 7,
      "train_loss": 0.047,
      "val_mae": 0.3581,
      "val_rmse": 0.4169,
      "val_spearman": 0.1566
    },
    {
      "epoch": 8,
      "train_loss": 0.0439,
      "val_mae": 0.3595,
      "val_rmse": 0.4185,
      "val_spearman": 0.1544
    }
  ]
}